-0.76892036 0.68131143 0.69891483 0.02397821 -0.47541419 0.07928263 -0.44332683 0.45713383 0.41389918 -0.12323797 0.12535143 0.72852576 1.05597758 -0.43312052 -0.11926933 -0.62559396 -0.82323444 0.75052387 0.58687222 0.73815525 0.74815488 -0.31048748 0.87127787 0.37578490 -0.52062076 -0.75422490 0.20649025 -0.96878392 -0.48817194 -0.51535058 0.10329328 0.59529465 0.75942564 -0.95477998 0.90867490 -0.58712810 1.05603540 1.05078137 -0.22764015 -0.36056167 -0.01118980 0.98605192 0.42786032 -0.81121027 0.70892942 -0.58939254 0.31270695 -0.64992642 -0.67986923 0.17685263 0.90288615 -1.09901083 -0.55347323 0.36297649 0.41110197 -0.06328750 0.40139067 0.22308333 -0.87338126 0.80189568 0.34751067 0.28677869 -0.19282477 -0.34457716 0.45430580 -0.58804852 -0.19091509 0.91265523 -0.49390584 -0.39122564 0.72017920 0.53094965 -0.57807428 -0.31242844 -0.50122172 0.89347106 -0.94046038 0.34209731 0.76917613 -0.46244255 0.10219231 -0.08132467 0.24954887 -0.34150445 0.11562845 -0.53111207 0.92824423 0.69251454 -0.79627985 -0.04618271 -0.48541117 0.38049203 -0.69486392 -0.86310649 -0.65249217 0.99162167 -0.64955920 0.23137170 0.69922441 0.55311537 -0.79740292 0.38113627 -1.01014793 -0.44571361 0.47374073 -0.37859491 -0.53039527 0.64788824 -0.30255347 -0.35185170 1.05273414 -0.18450406 0.74357456 0.03897007 0.96136355 0.19267349 0.72798729 -0.01480419 -0.22935998 1.05272412 -0.05576828 -0.85551149 0.16131237 -0.36523116 1.05382729 0.84396511 -0.57323372 -0.92037982 -0.64062846 0.42312393 0.63917595 -1.00050771 -0.02619901 0.14783275 -0.10752763 0.69797152 -0.42085314 0.06431964 -0.22676533 -0.61285436 0.03202186 -0.66622823 0.49318221 0.12217110 0.18832257 -0.04698377 0.59702796 -0.90903217 0.75720614 -0.91240162 -0.43598020 0.66811043 -0.77280366 0.50119776 -0.82322389 -0.60649121 -0.69087368 0.79226780 0.60932010 -0.75450152 0.99809861 -0.65080321 -0.88716084 0.36668372 -0.92986077 -0.53508323 -0.17902634 0.08667798 -0.74202943 -0.55970234 0.88385886 0.11005788 -0.74826598 -0.85479951 1.02114725 -0.18616363 0.19805284 0.79013366 -0.69991452 -0.69398856 -0.49657241 0.51252353 -0.65400374 -0.55768913 0.16071671 -0.67988378 -0.64095455 -0.68932974 0.26575214 0.92912406 -0.48673239 -0.58857220 -0.77080852 0.08070842 -0.02909487 1.00218356 -0.59485567 0.42225391 -0.12192028 -0.71556073 0.86359817 -0.14975435 0.57201850 0.89343244 -0.50494027 -0.02381303 -0.20297737 0.65546155 0.74013740 0.34881470 0.85765904 0.85215259 -0.49096212 0.41293269 -0.11497583 -0.97448575 0.23541054 1.15863955 0.84522182 -0.38557747 0.71457762 -0.51667267 0.93192822 0.34768227 -0.44475323 0.82352203 0.13979828 -0.07193331 -0.68775368 -0.07192533 -0.94549918 -0.20565262 0.87422776 0.10083467 0.94498336 0.01251783 -0.78797013 0.19887197 -0.81092775 -0.39131969 -0.83518469 0.58467770 -0.18639430 0.30651188 0.91092438 -0.90077442 0.20105460 -0.94980580 -0.15799788 -0.66136885 0.59687352 -0.06537763 0.22108454 0.57310981 -0.39487123 -0.05341654 0.36297238 -0.49651656 -0.09123089 -0.04306768 1.17817962 0.70150906 0.52800459 0.80524844 -0.60307115 0.89117599 -0.02730122 -0.31582728 -0.16527195 -0.86963820 0.91633344 -0.25036517 0.63168782 -0.24437194 -0.42489803 -0.26687157 -0.51785588 -0.82081795 -0.26090720 0.59442097 -0.05248076 0.46880829 0.89460462 -0.39567053 0.77974963 -0.93034476 0.49324971 0.07784322 -0.25327790 0.65677273 0.57436872 -0.52167982 -0.17816973 0.29421693 -0.85369390 -0.28253102 -0.58237255 -0.00577575 0.17200111 0.26303536 0.57805586
