0.66720420 0.40400371 -0.98917675 -0.40494952 1.02627456 -0.89190912 -0.70078826 -0.75971651 -0.81354034 0.36265713 -0.66620988 -0.02811010 0.32298386 0.44183615 0.49915928 0.77955776 0.22984010 -0.47595045 0.51344526 -0.47547442 0.87128520 0.80332547 -0.69407457 -0.86638242 -0.44817716 -1.01411819 0.06734927 -0.61095470 0.95347577 -0.65979636 -0.27581081 -0.60199171 -0.75614774 -0.64391190 -1.09011137 0.37540194 0.58721137 0.90991700 -0.88731420 -0.13258789 -0.20094389 0.88895684 -0.04114513 0.23745053 0.62678933 -0.56620121 0.01515720 -0.88100833 0.67039257 1.04829061 0.53389037 -0.77447510 0.12679878 0.39645538 0.76119614 0.63497853 -0.64103317 0.68852592 0.52891767 -0.51170599 -0.25692689 -1.08258295 -0.02915749 0.61842448 0.31938729 -1.16250014 0.64849818 -0.06251931 0.68554485 0.76726741 0.63856864 -0.28909230 -0.10312998 -0.07950667 -1.07674599 0.41085052 -1.10748410 0.51936400 0.71723014 -0.44684845 -0.90846026 -0.92358238 0.25724402 -0.91550457 -0.28243047 0.41257671 0.48825690 -0.39674595 0.77484769 0.20599923 -0.26774156 -0.10631935 1.06769931 -0.82262421 -0.92709011 -0.91762584 -0.70046842 0.84476995 -0.76202351 -0.17481597 0.63077849 -1.16068745 0.91457748 -0.86700171 1.08918130 -0.50126368 -0.50666445 -0.64984804 -0.85152149 1.02166200 0.87468940 0.52291423 0.95469177 0.36460316 -0.93379527 -0.93553787 -0.93698037 -0.21933426 -0.18718930 -0.84735394 0.75791293 0.34840959 -0.01006973 0.73564345 0.02585299 0.53900516 1.10461855 1.11735821 0.75730568 0.45993143 -0.89522046 -0.16194929 -0.77644819 -0.73199660 1.04057503 0.42219207 0.12349053 -0.97644323 0.48197404 0.67057681 0.31498748 0.59821039 -0.91140831 0.47762093 -0.45094046 0.27839008 0.78929651 1.12499666 -0.98396116 0.71858555 -0.13636224 -1.29021037 -0.39878154 0.03895890 -0.76980317 0.81883806 0.19504407 -0.73964614 0.75147539 0.88252515 -0.87810993 -0.99393326 0.35230267 -0.34382579 0.15891168 0.68692756 0.53065723 -0.12840448 0.04455055 0.71510839 0.92915273 0.20394573 -0.29512456 0.42871445 -0.39270806 -0.53544635 -0.89632559 0.23932682 -0.12843437 -0.77301848 -0.24231824 0.68451679 -0.76247060 0.52361798 -1.11609995 0.95827401 0.85235965 -0.36379528 -0.86793679 0.30099866 -0.28597280 -0.01969068 -0.25217998 -0.91454536 0.79332602 -0.75274378 -0.73679036 -0.49287984 0.24259558 0.19947210 0.77756101 0.15062436 0.46707273 -0.12761819 0.66887897 0.57059473 -0.96521395 -0.01861874 -0.75344568 -0.93930095 0.63454765 -0.46295261 0.69482708 -0.34948301 0.68007499 -1.04045057 0.31472439 -1.29305100 0.42914686 0.82756549 -0.03866288 0.62422121 -0.71174866 0.73227412 0.21686974 0.08748595 -0.45460770 0.65187240 -0.31512895 0.56785256 -0.26450923 -1.04096198 -0.08722012 0.23808086 -0.12698779 -0.08791058 -0.84137911 -0.41115525 0.23010974 0.81368071 -0.25499594 0.82063282 -0.13874596 0.04326626 -0.79217297 0.91110146 0.61330640 -0.14529446 0.52925915 -0.31926417 0.05749471 -0.03378611 -0.22345361 -0.91800916 -0.21100409 -0.55711794 1.01454115 0.96931964 0.71514535 0.23569487 0.15998518 -0.72393376 -0.16463029 -0.29344407 -0.38563776 -0.86075652 0.96255523 -0.60467166 0.57915270 0.80630380 0.08658312 -0.75757176 -0.39845175 0.19879574 0.90100545 -0.73628348 -0.57546890 0.29728255 0.64386010 -0.51977503 -0.52648914 -0.13706172 0.73805404 0.09555568 -1.20747960 0.99399149 -0.91810679 0.04145646 -0.54641938 -0.64874303 -0.91369879 -0.35381210 0.28867865 1.23755157 -0.91934562 -0.97173959 -0.13587651 -0.78821272 -0.17025656 0.16424562 -0.21441866
