-0.97537148 0.10220034 0.32624713
-0.23729052 0.95587528 -0.52562356
-0.69868100 -0.87594610 0.43805289
0.85894674 0.86187822 0.36420891
0.05670436 0.29454347 0.25863722
-0.11025784 -0.35084963 0.10540390
-0.53267437 -0.80653679 -0.82151031
0.80277789 0.00518962 0.04362574
0.72188634 -0.59007072 -0.90006393
0.26833349 -0.39207155 0.92707425
-0.62660003 0.82481712 -0.06927525
0.76852721 0.10573549 0.97850466
0.50254160 0.39454147 0.51967007
0.17454028 -0.81860602 0.05598831
-0.35364643 -0.01764665 0.26673290
-0.95783871 -0.16381259 0.30185261
-0.82494277 0.00938058 -0.39725578
-0.14329052 0.51153189 -0.22297977
-0.77734357 0.03982986 -0.96499842
-0.53896153 -0.09512857 0.46065500
1.10762525 0.59841865 -0.78842729
-0.26972514 0.07761255 -0.92236483
-0.87058705 0.48339227 -0.60407043
-1.02914894 -0.33216524 0.67429185
-1.20077264 -0.98530281 -0.69798791
-0.22086155 0.40112188 -0.35212812
-0.11324314 -0.77238530 -0.03997556
0.41912293 0.34940031 -0.98338258
0.01471574 0.74932981 -0.09241943
0.21881837 -0.00957004 0.01485849
-0.75313956 0.66121656 0.27423301
0.24706206 0.00582754 0.41656181
-0.15061921 -0.25559893 -0.23509488
-0.56890965 0.76476413 -0.34399605
-0.82617968 0.06163936 0.58573604
0.37382892 -0.30876049 0.91848564
0.80606586 0.96042854 0.33117551
0.37127730 0.23553635 0.93114948
-0.00402993 -0.64493370 -0.89441431
-0.40571868 -0.27799952 0.14280708
0.99265862 -0.80686927 0.77748364
0.44200894 0.47751227 -0.21772970
0.93941242 0.92067188 -0.41033593
0.92148924 0.42446873 -0.60206813
-0.12255026 -0.94627601 -0.95050234
-0.70891136 -0.32150656 0.21215643
-0.34269473 -0.87949127 -0.28902379
-0.32138115 0.24127762 -0.91948998
1.00035763 -0.81724203 -0.92995012
-0.46061316 0.53331065 -0.06759273
0.28775340 0.70567423 0.66372466
0.69971198 0.19913696 0.88431054
1.02646506 0.58625561 -0.29180887
1.13551104 0.79592782 0.59156984
0.42080328 -1.02874720 0.19971877
-0.41833696 -0.76571864 0.67215717
-0.26523480 0.32175583 0.74456280
-0.38839534 0.14107251 0.12470744
0.60890293 -0.38567746 0.13275404
-0.97624862 -0.87413067 -0.84529871
-0.58480936 -0.73288512 0.69724649
-0.81438255 0.24573119 -0.07498337
0.43850130 -0.47542703 0.24693248
-0.87128478 -0.24423756 0.12096380
-1.08465981 -0.71058798 0.46370766
0.94266075 0.46862403 0.73090762
-0.44321045 0.60044789 0.35147965
-0.27621052 0.48373908 -0.28143454
0.37371898 0.07766005 -0.99249536
0.49448475 0.34284547 -0.55725807
0.60418552 0.53081065 -0.25050515
0.39697039 0.79962069 -0.51395524
-0.04915386 -0.71046859 0.54513103
-0.75102246 0.58307177 -0.48405993
0.56681955 -0.24159360 0.79359835
-0.39344075 -0.53852361 -0.80058074
0.09855207 -0.75086808 0.41240451
1.02732396 0.82911259 0.36640197
0.29240075 -0.86111391 0.80383348
-0.90732211 -0.26386419 -0.83128065
0.19056295 0.12328285 0.05171774
-0.13791539 -0.36766067 0.80380255
0.37335277 0.05726909 0.40158847
0.11139425 -0.55444384 0.92709440
0.24890231 -0.41664824 -0.61051691
-0.06708713 -0.76472479 0.78306729
-0.76725012 0.65694737 0.62557328
-0.23168148 -0.65440232 0.90638858
-0.07611726 -0.41549739 0.69494319
0.50674909 0.54495865 0.76208031
0.00913605 0.79438555 0.25230002
1.18776429 0.77612728 -0.79726988
0.38209504 0.36837345 0.13411781
-0.48175648 0.37661192 -0.59749275
-0.81418198 -0.47627574 -0.65810895
0.09614595 0.71944195 0.40066326
0.25983793 -0.57360733 0.57888788
-1.04353189 0.80031341 -0.72252882
0.34384564 -0.50953960 0.41675758
0.13490993 -0.57065117 -0.03314470
-0.91050750 0.20472109 -1.02303553
1.11326051 0.96244472 0.71835744
-0.93946660 -0.91200197 0.80050564
1.08712459 -0.88377869 -0.79632390
0.35443547 0.03872871 -0.32435709
-0.40822628 -0.20393510 0.20112759
-0.32851726 -0.82125258 -0.06690967
-1.00870109 -0.66956210 0.68383968
1.16035593 0.87090474 -0.77224290
0.60395122 -0.66266936 0.52452898
-0.47026211 -0.62210697 1.00603116
1.00094414 -0.82141119 -0.95521396
0.72358125 0.88452858 0.32973316
-0.16067198 -0.80789804 0.46846291
-0.86475039 -0.90185088 -0.73567700
-0.89693987 -0.89528185 -0.88354909
0.59893119 -0.25944549 -0.41139483
-0.09748580 0.83835012 0.34404126
-0.83955729 -0.39851686 0.79594302
0.02424086 -0.16708979 0.11587224
0.55638921 0.90636140 -0.29521155
-0.17534947 0.67099071 0.56250012
-0.35998866 0.03052226 -0.40363967
0.14628968 0.68353093 0.27931225
0.49216390 0.47757629 -0.59671509
0.72198713 -0.44203144 -0.71378791
0.77056247 -0.58123338 0.97613895
0.20636232 -1.03763378 -0.37145218
-0.63590664 0.02607369 -0.87911743
-0.53018224 0.95661658 0.51062423
0.63133931 -0.17139341 -0.67098159
-1.08184838 -0.63589352 -0.92623669
-0.16090547 0.16694707 -1.00811303
0.55902672 -0.68468517 -0.36176452
-0.07662898 0.32905489 0.28664583
-0.71457928 0.84685987 -0.31031024
0.90671760 -0.02428153 -0.06101593
0.93179798 0.86293083 -0.22511406
0.33071488 -0.98500085 -0.80576009
-0.19131885 0.84084558 0.10516318
0.02600070 0.18563917 0.41366798
-0.48173776 0.71318948 -0.35418612
0.72947550 0.26264891 0.44499415
-0.49170470 -0.74141413 0.77471316
-0.02325354 -0.56784028 0.06449194
-0.43545806 -0.13713816 0.08194552
1.24487150 -0.98863101 -0.91274381
-0.44011861 -0.30192867 -0.16846044
0.67270613 -0.89387071 -0.48318669
0.12282287 0.31708598 -0.14099225
-0.95109528 0.80463523 0.78041399
0.39589781 -0.79369301 -0.03859168
0.65828282 0.61434460 -0.82420236
-0.29793456 0.46315703 0.15954129
0.18728682 0.39863071 0.46889013
0.80447906 0.62391990 0.57453376
-1.03480327 0.10959173 0.88335234
1.10912013 0.54568321 0.79732037
0.40426603 -0.79697502 -0.39562142
-1.05038846 0.58427596 0.79908109
-0.14165576 0.52121240 0.27013445
-0.50372827 0.46750703 0.46164146
0.52519083 -0.92042977 0.67038983
0.29720151 0.73856640 0.54297346
0.47770596 0.33972538 0.80187947
-0.44144076 0.31963041 0.80709428
0.59821671 -0.81965929 0.83211869
-0.75388098 0.09308866 0.04113366
-0.57504910 0.71186274 -0.09396958
0.76500380 -0.89251733 -0.79728693
-0.32642820 -0.42433858 -0.25797167
0.75681603 -0.64417428 0.62167293
-0.26095885 0.91119897 -0.15478258
-0.40235683 0.27649549 -0.69957066
-0.82543707 -0.46535558 -1.01526272
0.17985286 0.85194927 0.23676401
0.70010579 -0.31725207 0.59086585
0.36578080 0.36499786 -0.87107795
-0.05346695 -0.53812498 -0.83636671
0.42559382 -0.63163078 -0.22647524
-0.34337977 -0.41951764 0.25380096
-0.80936623 0.08667938 0.77243376
-0.77620512 0.72327739 -0.66816503
-1.13332546 -0.84650213 -0.81085151
0.89134854 0.86629552 -0.93708569
0.78010970 -0.37090892 -0.52186418
-0.66117436 -0.85026932 -0.95813835
-0.96463454 0.68532598 0.94733870
0.19261335 -0.68578601 0.28583774
-1.00077653 0.94434208 -0.90582532
-0.73846191 0.53459567 0.83251709
-0.15212476 0.75841838 0.26566562
0.37243414 -0.36068419 -0.09870300
0.55750710 -0.11789189 -0.99155682
-0.16802080 -0.96707511 -0.57415801
-0.95152771 0.74501419 -0.33235699
-0.27197182 -0.77284753 0.36014882
-0.55242515 -0.14256836 0.51042390
0.43556049 -0.39711577 -0.95404524
-0.12040985 0.96989161 0.68928182
-0.06193078 -0.92714411 -0.71313983
-0.44789958 -0.40394226 0.18661949
0.12447799 -0.60523111 0.10198822
0.29031113 -0.49840721 0.98227137
0.39694631 -0.79042971 -0.06320021
-0.84925473 0.46661949 -0.74703354
0.00830636 0.77023989 -0.39897391
0.68408036 0.85506725 0.44659290
0.16567710 -0.48445454 -0.30195934
0.94118798 0.75893134 -0.08414500
-0.66060418 0.42616469 0.29595858
-0.11954121 0.29688349 -0.75865704
-0.71114659 0.82752520 0.96853328
1.04477191 -0.25256342 0.74607044
-0.45872033 0.86934477 -0.67368358
1.00915492 0.46181041 -0.13613079
-1.09155750 -0.85124093 0.67805827
0.36012477 0.27533865 1.01785934
-0.74041736 0.03291024 0.36002931
-0.12521788 -0.15662360 0.28376371
0.99160534 0.95153129 0.29666173
-1.01041269 0.12221340 0.98717803
0.86001217 0.33861029 0.58494020
-0.39988816 0.05478496 -0.37467039
-0.52229089 -0.46136123 0.11900117
0.49567533 -0.12234137 -0.35013649
-0.12726451 -0.28183120 0.07622197
-0.65723407 -0.93595701 0.45563027
0.42333913 0.63361955 -0.57138562
0.14820342 -0.56889015 0.09372135
-0.40497366 -0.88070178 -0.01511052
-0.08563077 -0.22393125 0.90329748
0.22197898 0.19493966 0.36541668
0.21280763 -0.84974921 0.53929484
0.68114847 -0.55818176 0.23226546
0.51191849 -0.44567636 -0.08035436
0.16240405 0.27229610 0.56463420
0.46873271 -0.11582320 0.53735149
0.34362173 0.20429306 1.02181852
-0.30376050 0.41329473 -0.60503995
-0.62221456 -0.05395312 0.13647576
0.42898139 0.35581526 0.80626678
0.11397149 -0.21220174 0.18431278
0.54581034 0.58947718 0.80060816
-0.52171552 0.06238020 0.00091522
-0.50348473 -0.47736183 -0.01558983
0.16170962 0.90171915 -0.09400735
0.55453503 0.76928675 0.79507875
0.08033593 -0.21796010 0.86750567
-0.24986976 0.96939367 -0.64452648
-0.01685832 -0.62946820 -0.49610081
-0.85643530 0.79598671 -0.61200857
0.41473874 0.07327440 0.30324695
0.16772640 -0.11260159 0.86893684
0.19686894 0.22096552 0.20400414
0.67938769 0.58788830 -0.92462671
0.85822058 -1.04393601 0.28849724
-0.48793888 -0.36131066 -0.88313437
0.19527771 -0.51568681 0.11444859
0.73780417 -0.23941654 0.10914979
0.63417959 0.66407889 -0.05122047
0.17275299 0.40271744 -0.87856442
0.35687974 0.44489276 0.98288780
-0.97577381 0.80753964 -0.76849473
0.31385198 -0.11088569 0.14261919
1.11557531 -0.37903410 -0.99100852
-0.55521506 0.82999915 -0.65920001
0.25674230 -0.45515689 0.34701878
-0.33259389 -0.14004877 -0.22512408
-0.64441073 0.11809447 -0.33677769
-0.87016857 -0.52562791 0.51108515
0.69492996 0.34955111 -0.11743797
0.72539788 0.54088372 -0.17352343
0.71615452 0.62704176 -0.67610550
-0.81551361 0.64290613 0.46314800
-0.50807667 -0.73936081 -0.69879055
-0.78609186 -0.49096453 -0.00655595
-0.80532163 -0.24946424 0.01039009
0.15794086 0.33594763 0.56685591
0.47490451 0.77502638 -0.08615524
0.05411572 -0.25804293 -0.99388158
-0.06734796 0.01691132 -0.28575668
-0.14314938 -0.78468740 -0.23772794
-0.79614764 0.85521144 -0.76426393
0.28044236 -0.61216956 0.65314740
-0.09954396 0.06243055 0.46464697
-0.66147143 0.28825653 0.77584565
-0.39058962 -0.18123096 0.36109427
0.40154082 0.27385223 0.20370166
-0.61463124 -0.89561129 0.06283415
0.50981879 -0.79234511 0.46646148
0.95844215 -0.87216014 0.49644306
1.12219286 -0.95027745 0.92502087
0.43406659 -0.12819295 -0.03733120
-0.57573956 -0.53511369 -0.44074574
0.83778387 0.33551666 -0.74942601
-0.93498367 -0.79163617 0.85856116
-0.87717456 -0.23655601 0.66490859
0.59126568 -0.88352883 -0.08994430
-0.00920075 0.34301502 -0.78612030
