0.64792949 -0.89452046 -0.23491792
0.66924584 0.03979634 -0.25111759
0.57785988 -0.86310637 0.07651119
0.02438054 -0.91958410 -0.76452303
-0.31360054 -0.67892468 0.26868144
0.38116980 0.07404985 0.57242697
0.22310026 -0.30200309 -0.23146991
0.19088660 -0.72204947 0.69215184
0.28487042 -0.86473292 -0.37392956
-0.83406067 0.58493745 0.59627253
1.06009924 0.67154324 -0.00360987
-0.58681756 0.49542981 -0.51839262
0.57867581 0.13261531 -0.96163887
0.46653467 0.76455456 0.11097667
-0.83037549 0.11706253 0.05014785
-0.30040738 0.55065554 0.01203518
-1.04990387 0.08814424 -0.38180435
0.60322255 0.43303293 -0.56026787
-0.45440441 0.50984132 0.32029736
0.57697761 0.21517932 0.01408045
0.17261310 -0.24311396 0.99110377
-0.41456345 0.87783521 0.88019836
0.20183498 0.64703029 -0.26897302
0.21404891 -0.74879330 0.55403131
-0.34422964 -0.32819375 -0.32264611
-0.89922243 0.79962027 -0.87666148
-0.10100360 -0.34695113 -0.33428627
0.53134257 1.02126229 -0.95795619
0.34095567 -0.77238345 -0.16882153
-0.26935309 0.75901610 -1.00410783
-0.70954502 0.31479344 0.92097181
-0.16086131 0.57423037 0.57639265
-0.04824722 -0.81049991 -0.18668036
-0.96514195 -0.74896502 0.22372964
0.45740232 0.64688510 0.58953273
1.07016957 0.10966024 0.60052705
1.09502733 -0.30150321 0.83778608
0.58290440 -0.84037089 0.93323880
0.83026320 0.29661408 0.67773384
-0.66611999 -0.98644090 -0.21803306
-1.13739467 -0.35947600 0.64816761
-0.45468232 -0.33913431 0.45541400
0.07766858 0.73633569 0.16981019
-0.36097389 0.75033551 -0.26101509
-0.64369065 0.74144244 -0.80878371
0.91148353 -0.31824166 -0.77715778
-0.18241696 -0.50612509 -0.16935588
0.67990243 -0.23081033 0.33249465
-0.76243728 0.53964847 0.35486490
-0.90969276 -0.92168963 0.43950212
-0.13156717 1.00992286 1.00034893
-0.42143342 0.36746097 -0.65602916
-0.56818742 -0.43288657 0.91692674
0.66520977 -0.05945092 0.26994029
-0.74818689 -0.83047116 0.50169909
0.58902329 0.01133619 -0.48626673
-0.54990977 -0.99008828 -0.58744198
0.44723096 -0.54912382 0.65359592
-0.19991389 -1.00497699 -0.16501017
-0.29046857 0.26872635 0.72929823
-0.24422197 -0.50433087 0.10086447
0.86350006 0.39932510 0.45927393
0.58833677 0.95320237 -0.71663165
-0.62382311 -0.64322323 0.92906129
-0.79545742 -0.13733628 -0.02175502
-0.06229717 0.81614947 -0.03197327
-0.13456175 0.71974236 -0.15512182
0.55926162 -0.56378597 -0.52159923
-0.40119457 0.33053297 0.57092065
-0.53589797 -0.01921497 -0.19737037
-0.51822311 -0.03505893 -1.01119506
-0.36395326 -0.24479328 -0.27384588
-0.22562125 0.56976140 -0.39207956
-0.78583181 0.32203043 0.28629687
0.94801933 -0.74259603 0.29241318
0.06533074 -0.71902865 -0.65604061
0.67204148 0.52362657 0.79065412
0.77527744 -0.48636866 -0.79942697
-0.39614984 -0.71568227 -0.91804868
-0.46132022 -0.26450545 0.31085363
0.86092991 0.01740349 0.86133516
0.01371559 -0.61517316 -0.68996066
-0.54396981 0.72152674 0.33492517
-0.38492134 -0.80140090 -0.48647612
-0.49625498 0.65717995 0.83992118
0.13056721 -0.20705713 0.92467320
-0.51198626 -0.83855706 0.91448134
0.62143850 0.81417960 -0.26801091
0.44530293 0.77011174 -0.49659613
-0.68322808 -0.81154948 -0.63458353
0.80873352 0.44944847 -0.56363666
-0.73131967 0.75228792 0.62767768
-0.03625423 0.59073341 -0.43854544
0.36411607 -0.32186109 -0.64690608
-1.25313687 -0.26513964 -0.46984833
-0.34024656 -0.81137466 0.66181839
-0.38025087 -0.25488493 0.59476894
-0.89721739 0.32148096 -0.08549751
-0.68494117 -0.36075726 0.58026081
0.10009743 0.19467190 -0.34926513
-0.56031787 -0.17304978 -0.37811118
-0.51054877 0.47593853 0.65172035
0.90584540 -0.59744155 -0.91499776
-0.00246501 -0.55607295 0.39411426
0.83759332 0.23432264 -0.80263412
0.75630158 -0.70031059 0.72644991
-0.46419570 0.45273209 0.33736730
0.30704305 -0.08022633 0.65652806
0.41140154 0.25861427 0.21656628
0.79222661 -0.23543362 -0.16900398
-0.74473494 -0.67130107 0.83959484
0.24880026 -0.28897110 0.71383858
0.16350043 -0.10728784 -0.94167256
-0.78948331 0.03592026 -0.03567612
-0.02927855 0.30933028 0.69985336
-0.07295583 -0.53424460 0.72087556
-0.73820943 -0.23046115 -0.76324409
0.00152809 0.50816464 -0.73717928
-0.76965994 0.00652502 -0.27868852
-0.10199432 -0.14839564 -0.19077304
0.54671341 0.34425360 -0.33968559
-0.91240013 0.96702927 0.65477157
-0.22208506 -0.28292346 -0.53427249
0.72806430 -0.26472440 0.04702177
-1.10147357 0.15985714 -0.58156174
-0.07342259 -0.71817392 -0.39230859
-0.25303757 -0.30093664 0.38412094
-0.05986092 -0.41185895 -0.05127918
0.03178132 0.84299672 -0.37810445
-0.97119701 -0.26021156 0.93755186
-0.18650833 0.46499899 0.76148242
-0.72688776 -0.31404686 0.77265757
0.81353211 -0.40780506 -0.91220111
0.08352385 -0.14431468 -0.94373256
-0.80514216 0.89189780 0.05850859
0.85681266 -0.96186078 0.37395549
0.58575207 0.82098454 0.15059265
-0.57989317 -0.40581268 -0.48448834
-0.18403135 -0.22013526 0.43542293
-0.24320175 -0.38387010 0.45083186
-0.30944934 -0.87009543 -0.03485716
-0.44715163 -0.12166753 -0.84988171
0.38106641 -0.95711583 -0.39960870
0.38661751 -0.69037080 -0.92763638
0.66520703 0.13023050 0.72016615
0.48414025 -0.09519371 -0.14100631
-0.51463604 -0.36555210 0.45761755
-0.74733120 0.54339218 0.55217224
0.04171912 -0.43568853 -0.54955101
0.65851194 0.94890255 0.27973118
1.00760269 -0.63966602 0.89987975
-0.53874332 -0.39061064 0.54180008
0.02013760 -0.80256671 -0.69070107
-0.73233998 0.34859604 0.91826713
-0.16167922 -0.44758514 0.77253437
0.52690792 -0.43591186 0.57458109
0.32399771 0.61848009 -0.10711820
-0.41702920 0.53095829 -0.59783506
0.60310227 -0.84725857 -0.23249838
0.29971907 -0.00954898 -0.11075890
0.73693633 -0.82695115 0.59174114
0.63235360 0.92567354 -0.61784923
0.11052247 -0.65743482 0.51544172
-0.01924345 -0.21772559 0.77742326
0.04281783 -0.90528947 0.33294037
0.02961159 -0.89328676 -0.80162328
-0.16956741 -0.90025288 0.39661857
-0.42822835 -0.21694225 -0.82736635
0.17516176 -0.39847827 0.54384661
0.64529926 0.81760830 0.30131075
0.52650273 -0.69250023 0.30717468
-0.44930711 0.19626273 -0.86393422
0.68910444 1.02107906 -0.29519209
1.21987832 -0.36579391 -0.27044871
-0.35843182 0.26721725 0.69183648
0.63049620 -0.06253284 -0.22795704
-0.27011153 -0.97031075 -0.93665290
0.27292967 0.37629175 -0.20064332
-0.36176771 -0.52959794 -0.32992032
0.71290827 0.68142366 0.91813976
-0.05031762 -0.07360160 -0.88697886
0.89503980 -0.67653751 -0.96704525
0.38809788 0.33051899 -0.81454909
-0.38994509 0.03621170 -0.18501186
-0.23061359 -0.02420699 -0.68299621
-0.04907688 0.32299215 -0.05608765
0.21130137 -0.34936705 0.58704090
0.91037720 -0.76345533 -0.33583859
0.70840997 0.50133288 -0.03568584
-0.06566850 0.57363570 -0.48085153
-0.37349868 -0.18282275 0.54199839
-0.88212150 0.04098259 0.14080916
0.10409055 -0.61094528 0.48299894
0.50468194 0.26090682 0.22194979
-1.10010839 -0.34980443 0.17744623
0.24534529 0.71829003 -0.88802928
0.65357012 -0.90936661 -0.46168008
0.06409040 0.07830785 -0.57612050
0.56969500 0.31231925 -0.55966705
-0.86626488 0.69488406 0.93690729
-0.94329661 -0.02615434 0.05105746
-0.86158937 0.66790259 -0.97510988
1.08772779 0.41333798 0.03470967
0.21635586 -0.03161958 0.72016525
-0.05471277 0.61583674 -0.60309124
0.23406671 0.73011363 -0.21016987
1.00565124 0.53467876 0.28134137
0.25120634 0.69524437 0.28206727
-0.02458077 -0.31419393 0.97666097
-0.78621876 0.60656703 -0.32292455
0.53880548 -0.46970448 -1.00160611
0.82431233 0.46424970 0.98000854
-0.57169998 0.49652857 0.71922565
-0.52022231 -0.49947792 -0.79534006
-0.17830667 0.66006076 0.55708605
-0.11184525 -0.92730200 0.35143366
1.06044924 -0.40644836 0.02540902
-0.92579478 -0.85982931 0.67344123
0.17633007 0.84508324 -0.02679008
-0.02221106 0.75709069 0.17246580
-0.17003927 -0.96583313 0.18454628
-0.47410858 -0.61627656 0.45127627
0.25852656 -0.62621540 0.62398607
0.47343785 0.40667331 -0.33080664
-0.92127430 0.58481485 -0.08663040
0.47043747 0.56689090 0.40975517
-0.26397982 0.04524817 0.59596252
-0.57311875 0.21930814 0.98255992
0.16178605 0.03745947 -0.85777783
-0.58482218 0.28382736 0.52636975
-0.75488001 -0.99044007 -0.38155162
0.96539903 0.44907576 0.98137051
-0.29785982 0.18005459 -0.08043011
0.01753295 -0.90486085 0.13268077
0.06920838 -0.38063690 0.23235901
-0.67943817 0.45526075 -0.57638520
-0.94640666 0.64331979 -0.62391299
-0.55293846 0.29445037 0.77332747
0.55849928 0.28820035 0.55995721
-0.86305600 0.75230831 0.62400222
-0.20143469 -0.39112633 0.78499675
0.87014204 -0.86110115 -0.88074905
0.06322496 0.68137872 0.75736833
0.52862024 -0.20960568 -0.01034108
-0.33297977 0.68169004 -0.82158256
-0.52535367 0.36504200 0.54893589
-0.06115002 -0.13201711 -0.13380153
0.08775216 0.36771631 -0.33012438
-0.48131409 -0.96029186 -0.46246418
-0.16873562 -0.97888970 -0.12068380
0.89657152 -0.86454976 0.12038908
0.63894945 0.95354050 -0.75653416
0.92064106 0.05034738 0.83998364
-0.42233410 0.79048622 -0.33767465
0.15151536 -0.29932272 -0.89155138
0.97887248 0.03831222 -0.39849633
-0.39963672 -0.82430017 0.95864701
-0.35390621 0.86530149 -0.01651395
-0.80766004 -0.39950898 -0.28453565
1.09672999 0.01352371 -0.41048667
-0.96242434 -0.08503642 0.35650662
0.96602184 -0.20127806 -0.91649979
-0.27370799 0.01551519 0.59128898
-0.25193051 0.14375630 -0.89921969
0.57714552 0.83050507 0.91781932
0.61191088 0.48489583 -0.27859461
-0.48025152 0.30844870 0.69139051
0.59774709 -0.50747693 0.86325300
-0.93059993 -0.83362216 0.79232192
0.66870284 -0.03244278 -0.25255665
-0.82458669 0.66801512 -0.61771804
0.08016661 0.68300682 -0.97616202
-0.86689276 0.96187139 0.50249267
-0.27634859 -0.42719743 0.57571101
0.41419190 -0.85728395 -0.60570729
-0.93488967 -0.59464186 0.80942923
0.06328528 0.94236779 -0.26190904
0.54493326 0.25947052 -0.70355636
0.71395463 -0.20277753 -0.61916965
-0.85950822 -0.61838704 0.05984966
0.07764359 0.65454906 -0.54428566
0.55799598 0.36637315 -0.94113326
-0.21993430 -0.45782617 0.29277161
-0.75393361 -0.80923861 -0.44663823
0.21115051 -0.16256087 0.26511392
-0.79931521 -0.60473806 0.26163673
-0.24093373 0.71907526 0.01995078
-0.48732919 -0.24297036 0.27696666
-0.37815052 0.83129132 -0.65248913
0.73129421 0.30599666 0.05028691
0.35944375 -0.99559981 0.31582612
-0.21576414 -0.33388454 -0.22167403
0.60345942 -0.01873252 -0.92929167
0.61184943 -0.97336775 0.78239876
-0.29258469 -0.01830478 0.86309773
0.02892792 -0.50607318 -0.10850690
-0.76937222 -0.46276477 -0.52757871
0.09288907 -0.55632365 -0.75921762
0.52180511 0.78238201 -0.15444335
-1.07946110 0.19928241 0.72724980
