0.86792952 -0.55583841 0.30190104 -0.23326059 0.16004966 0.46878859 0.51922154 1.07414913 0.43832570 -0.74583972 -0.83923733 0.15951256 0.14299497 -1.20637810 0.08797950 0.90523523 -0.98936468 0.82079238 -0.50972760 0.34887570 -0.27893385 -0.33098662 0.40894553 0.47197759 -0.25652832 -0.79407847 0.88140070 0.78014243 0.05626801 -1.10921180 -0.29285255 0.37429166 0.60142881 -0.99828970 -0.21719401 -0.30668959 -0.46872714 -0.44819140 -0.37731743 0.48860466 -0.87581670 -0.15305543 -0.85224694 -0.76225752 -0.04506524 0.04682692 0.76348758 0.73130220 -0.42969787 -0.06319216 0.82845247 0.64446050 0.74625665 -0.45510662 -0.09870784 -0.26637942 0.17190823 0.94622773 0.52424479 -0.13798237 -0.48732394 -0.02898593 0.42263252 -0.75496799 0.79113775 -0.59418821 -0.63336682 1.21777010 -0.14216034 0.70642704 -0.02163746 -0.16019407 0.54209566 0.31960666 -0.66792548 -1.00945723 0.48869333 0.86923981 -0.75990772 0.13468046 -0.40014416 -0.81757134 0.36202925 0.86512953 -0.50072092 0.25126600 -0.95400244 -0.03434114 0.44102803 0.04243961 -0.14883694 0.76115227 0.96276903 -0.63661414 -0.20988172 -0.31250805 -0.20064215 -0.93764168 0.74955714 -0.48529425 0.35617176 -1.23196828 -0.28251207 -0.83441031 -0.10291304 0.28333905 0.48561227 -0.86505944 -0.41997206 -0.10492446 -0.44000033 0.50677484 0.11569674 -0.37739331 0.90872830 1.13286328 0.02686888 0.69954324 -0.72508943 0.66483861 0.48967624 0.48424417 -0.56200290 -0.01164527 -0.03919023 -0.37905860 0.08651880 -0.97800577 0.25813991 -0.46479270 0.34901118 -0.20585433 0.74665123 0.76366293 -0.12122925 -0.14800741 -0.93336719 -0.45773643 -1.38538229 -0.00557588 0.11799135 -0.00109813 -0.09408085 -0.97995973 -0.81128126 -0.67254025 -1.23203146 -0.77106625 0.42428428 0.70089811 -0.10009557 1.09468162 -0.43151531 0.19305202 -0.91926622 1.16243410 -0.29881856 -0.10114622 -0.56635344 0.64840883 -0.23053132 1.17841172 0.44312462 0.63945967 0.47358942 -0.46336621 0.82744151 -0.97230697 0.24766947 0.59768718 0.56230724 -0.31743777 0.02137620 0.42191893 0.30394974 -0.29513654 0.41018787 -0.27886349 -0.33719248 -1.03942680 1.00607669 -1.08853102 -0.57389510 1.04205906 0.16993459 0.93894321 0.06652250 -0.68094826 0.31994492 1.05144811 0.17563617 -0.51636732 -0.74106890 -0.78319067 -0.44339931 -0.32125196 -0.63664526 0.56704652 0.31786150 -0.87875390 -0.25779647 0.17756645 0.65607494 -0.77175546 0.98161203 -1.10011637 -0.90049791 1.02313316 0.11601264 0.25198033 0.91203016 -0.06251568 -0.42186952 0.35751605 -0.38405901 -0.13895686 -0.97946352 -0.10206492 -0.93177503 -0.65813160 -0.90390956 -0.61626607 -0.75706387 -0.72879541 -0.57771337 -0.68005276 0.51064909 -0.09014083 -0.00926303 -0.75502455 0.10344376 -0.40986189 0.44460464 0.25457591 -0.19579865 0.06156834 -0.04342566 0.61454386 0.10025093 -0.82163990 0.72059256 0.87781948 0.55826664 0.50019711 0.58505106 -0.63055366 -0.49353275 -0.49525416 0.55591404 0.30493233 -0.32560128 -0.38505694 0.20034683 0.96550506 -0.49627241 -0.33929262 0.03142023 0.25019971 -0.89871871 0.28045678 -0.92412430 0.23682377 0.42609620 -0.36896774 -0.90869051 -0.49231139 -0.73529947 0.08098166 0.57220078 0.83560729 0.93576437 0.17446220 0.81156498 -0.10604635 -0.19380426 -0.60699338 -1.28122890 0.23166177 0.23152697 -0.79018486 0.05511080 -0.36693910 1.02305710 0.78378522 -0.39441153 -0.69388878 -1.29703772 -0.95490998 -0.09189374 0.52050334 -0.68272191 0.54705906 -1.20746326 0.33820391 0.55259269 0.74506092 1.08803928 -1.04795194 0.37447518 0.89660102 0.39406434
