0.26327363 -0.30168179 -0.05904852
-0.11171556 0.03337577 0.12530434
-0.45621550 0.12092020 0.26023611
-0.36324987 -0.22065376 -0.08394758
0.31656125 -0.63885516 -0.26874852
0.90428430 -0.12459069 0.74463505
0.89092380 0.91109645 -0.92013860
0.30768871 -0.28619745 -0.83103055
0.32673243 -0.05133757 0.25594091
-1.15406716 0.84954327 -0.72303712
-0.99388045 0.02897068 0.01656203
-0.64673191 -0.67090976 -0.69891250
-0.98210192 0.94198418 -0.21631894
0.14106256 0.45509180 0.21857691
0.74500734 -0.68156004 -0.89157748
-1.17494857 0.90770227 0.91291428
0.43573189 0.42210114 -0.34405124
-0.00742366 -0.16428809 0.47338194
0.60170412 0.89072150 -0.13815123
0.34945825 0.13363405 -0.49184698
0.49346939 -0.74933094 -0.97469950
0.96253985 0.95565486 0.89160836
0.93830001 -0.19009629 0.74105400
-0.74568880 0.67838931 -0.89613271
0.40443683 0.12984441 -0.72475505
0.77171063 -0.97530466 -0.63813001
0.97535431 -0.59476554 0.92394024
0.62343478 -0.43543959 -0.82636213
-0.64199030 0.67385340 0.78532296
-0.83711392 -0.28428978 -0.76156610
-0.88768470 0.00245041 0.75945264
0.64082652 -0.48074201 0.59062570
-0.57840079 -0.49214441 0.84844822
0.32360697 -0.16839242 0.28727478
-0.53767705 -0.39890862 -0.24696015
-0.08132658 0.63115776 0.58644712
-0.90001822 0.71543711 -0.42769679
-0.61806846 0.33924985 0.87291896
0.51846683 1.01603222 0.07429184
-0.57222813 0.78392792 0.82335573
-0.62042689 0.58018380 0.20794648
-0.23453233 -0.19772126 -0.85512549
-1.12311888 0.08492032 1.08589220
-0.25857568 -0.69392109 -0.93316054
0.56880337 0.05778587 -0.16593952
-0.24356399 0.15064408 0.56132334
-0.27893692 1.01011765 0.79085791
-0.06584215 0.79389989 -0.68960911
0.30316067 0.21902241 -0.27095506
1.02710211 0.10442092 -0.85264236
-0.09052549 -0.30285394 0.80731738
0.82729363 0.77344763 0.46765426
0.09565084 -0.93715703 -0.43783092
-0.59452039 -0.53725755 -0.36634889
-0.42589334 0.00445737 -0.77623904
0.81923479 -0.26981539 0.24596596
0.51648545 0.01829379 -0.67365390
-0.16169633 0.32163510 -0.66595018
-0.43996921 -0.81667095 0.24100223
0.68428665 0.22881150 0.79315174
-0.51608193 -0.44350454 -0.10809474
0.47825754 0.36201304 -0.06466466
-1.08435333 0.94410545 0.95051444
0.45571271 0.81809545 -0.16986308
0.33189002 -0.53996843 0.58100599
-0.91461307 -0.74931395 -0.91278553
1.07752395 -0.71563703 -0.76595652
0.72453225 -0.62779093 -0.38001487
0.77993625 0.59115624 0.49637014
0.81264055 -0.31106481 0.00478361
-0.67779261 -0.75775969 0.90262127
1.02556169 0.96822256 -0.65633118
-0.12794125 -0.36782801 -0.10684049
-0.39721188 -0.08885527 -0.77731597
-0.88255394 0.74162489 0.69423932
0.98078614 0.30946752 0.67057532
0.28264916 -0.41431218 -0.49360421
-0.73029035 -0.56897527 -0.42666349
0.58870435 0.98026329 -0.71185404
0.46364519 -0.73706234 -0.33519229
-0.66637564 -0.23245709 -0.47269070
0.24138507 -0.36251751 0.35251197
0.37004060 0.42042643 0.19911030
-0.26134932 -0.02619652 -0.67657512
0.66084826 0.63682079 -0.62718594
-0.94766039 0.61437106 0.67330647
-0.18639520 0.42291799 0.30460957
0.02303685 -0.91575152 -0.32953557
-0.00365557 -0.34268808 -0.38554156
-0.70852154 -0.36823520 -0.64041489
0.07282466 -0.61686438 -0.69343960
0.26593220 0.89957607 0.31313318
-1.07511890 0.61622065 0.63798994
0.39218441 -0.88462090 -0.78038269
0.23863554 0.61240673 0.61056471
0.12160210 0.12007581 0.17380136
-1.15913260 -0.76464581 0.68057400
0.40021408 0.50774479 0.35306123
0.52290052 -0.85481298 0.13181384
0.47152895 -0.05679436 -0.72410500
-1.19315207 0.93346697 0.74705011
0.00818892 -0.47883838 -0.02994977
0.13652413 -0.00584505 0.35936543
-0.84026599 0.59292072 -0.95793027
0.06626784 1.01060414 -0.10287004
0.15975106 -0.48518288 -0.95014757
-0.62976027 0.99476171 -0.02271756
-0.95599329 0.47492817 -0.76049376
-0.53697276 0.98900044 0.63109142
0.66148400 -0.79381692 -0.97126126
0.54243094 0.70728838 0.25935987
-0.17921129 0.87459749 0.99336141
0.25627035 -0.37775314 0.37389523
0.15423627 0.41711050 0.30280912
0.86593688 0.47689068 -0.99946803
0.28393537 -0.69293988 -0.26738206
-0.62675244 0.68784434 -0.19585028
0.27854651 -0.32010064 -0.61440730
-0.04985043 0.11799926 0.88541013
0.18633823 0.30603692 0.83444697
-0.61904198 0.09567936 0.16229995
0.42876905 0.01793146 -0.69262356
0.54207891 0.78628123 -0.18005800
0.91331685 -0.28268680 0.97985923
-0.02029117 0.23774987 -0.65097225
0.61617035 0.06092767 -0.64408892
-0.77525258 0.32185876 0.89598501
0.45143205 -0.67363161 0.64725351
0.32597563 -0.18629709 -0.12362967
0.10378034 0.44013423 0.40460068
-0.09264822 0.58443022 -0.92139256
1.05108488 0.89572734 -0.45272613
-0.78452963 -0.28524154 -0.39967975
0.11019100 0.13939095 0.36240605
0.72836828 0.59078944 -0.07796195
-0.15186816 -0.99805850 0.03699422
-0.89795280 0.82015151 -0.39410546
-1.16125929 0.90585303 0.70106745
0.50349659 -0.85640943 -0.63491774
-0.11425108 0.48572177 0.24727644
0.51060510 0.48637602 0.75534737
-0.76275152 0.05508909 0.00614580
-0.24787562 0.68902814 -0.02335379
-0.99214017 -0.42004046 -0.84563202
-1.05437326 -0.47865090 -0.81217241
-0.93945551 -0.75615185 -0.79327536
-0.10428235 0.23578462 0.15769960
-0.36225873 0.13922337 -0.07128576
-0.20312583 -0.60111320 -0.82623756
0.97380143 -0.19083482 -0.30661580
0.66016561 -0.63739932 0.76259130
-0.90526986 0.64399868 -0.98533481
-0.57980776 0.71899998 -0.24981162
-0.87995958 0.74218547 -0.83910209
1.07691538 0.78989887 -0.93278807
-0.03096846 -0.31203559 -0.71954161
0.41926324 0.73681116 -0.92745566
-0.31065685 -0.26931810 0.81321824
-0.09756732 0.22705740 -0.95917284
-0.31133491 -0.94871074 -0.86637431
1.20665705 -1.07591355 0.03625217
0.03135650 0.74691647 0.82851142
-0.71239883 0.24278048 0.41791004
-0.20351961 0.58605504 0.04016861
-1.02376556 0.76130843 -0.34691617
0.14284438 0.62145209 0.80949140
-1.18239093 0.77017379 -0.81061214
-0.02700648 -0.81612575 0.75476462
-0.02507202 -0.69686157 -0.21127276
0.74577898 -0.38502121 0.43010038
0.67983699 -0.37354159 -0.90913975
0.05244170 -0.42488477 -0.26982903
-0.83727115 -0.23056313 -0.20895118
-0.51281691 0.20251413 -0.16915366
0.55958784 -0.31996638 -0.85861325
0.73547691 -0.79388779 0.53804070
0.24832951 0.61784154 0.95317298
0.07326232 0.17567629 0.09307381
-0.62962991 0.71717685 -0.68172002
1.00783062 0.70342600 -0.58017600
-1.07252085 -0.72378421 -0.99173069
0.22566503 0.32526270 0.87490726
1.00492477 0.91657501 -0.39734271
-0.48432204 0.33901981 0.04729637
0.19531727 0.53754836 0.87390399
0.49214801 0.37870458 0.66446567
0.34058982 0.69820470 0.07146328
0.82719743 0.07797299 -0.87667567
0.52944607 -0.84826547 0.68949634
-0.83406997 -0.31034496 -0.33230370
0.60358828 0.96383893 -0.38098830
-0.84476608 -0.89356953 -0.19134401
0.16973573 -0.27704689 -0.53915334
-0.16525078 0.47246939 -0.31714624
0.04762056 -0.11596591 0.75152117
-0.81463975 0.39139217 0.83379197
-0.12088207 0.10797640 0.70804387
-0.10848500 0.80118257 0.54128343
-0.53436422 0.74987078 -0.70582247
0.61219120 0.98251957 0.44874543
-0.64029413 0.48117903 -0.05780168
0.67557991 0.52169120 0.27519247
0.14375634 -0.56237537 0.64990497
0.31825125 0.97433937 -0.74935120
-1.14349353 -1.00265443 -0.83575863
0.01028743 0.70495605 -0.46001586
0.97099543 -0.75501651 -0.73624581
0.41811645 -0.11806885 0.72322768
0.38864911 0.94818288 -0.96396393
0.83345741 -0.66516709 0.33641249
0.58440077 -0.61802989 -0.89880323
0.10333969 0.31983620 0.58068728
0.01300006 -0.80510336 0.23774914
0.25384465 -0.20062396 0.31395105
-0.53331763 -0.77069801 -0.62605315
-0.70026189 -0.69521266 0.47567528
-0.13281719 0.72370070 -0.03458103
-0.76524591 0.10388761 -0.74039006
-0.36697993 -0.51869124 -0.98385638
-0.05126073 0.26408446 -0.02075317
0.69584411 -0.72076142 0.32310700
-0.88916939 0.09003402 -0.48417357
-0.90485615 -0.01146511 0.95839328
0.04050095 -0.66201025 -0.79665965
0.83139360 0.11158235 0.65272027
-0.67507887 0.35370120 -0.03278268
0.36264119 0.62638563 -0.94043642
-0.26192531 -0.74554867 -0.43985787
-0.43553692 0.42901587 -0.60332924
0.33528608 -0.55238962 0.81350553
0.13727979 -0.66681010 -0.98734623
-0.55528367 -0.06042436 0.20675565
0.33400437 0.93731731 0.71960127
-0.11145691 0.00051103 0.56319743
-0.74660701 0.09585137 -0.53817993
0.88531131 0.20502719 -0.32381949
0.68539584 0.32774326 -0.76679140
0.49979267 -0.90427709 -0.09772742
0.44616956 -0.48297107 0.29894131
1.04947984 -0.40072232 0.83429623
0.10739627 -0.77942431 0.17634512
0.63040817 0.39941913 -0.22202879
0.99173325 0.33042356 0.42578664
-0.57627600 0.09638150 0.41053605
-0.69700468 -0.57405895 0.30216739
-0.22785282 0.95675790 0.97261631
0.65327007 0.15028842 0.32050097
0.16714728 0.84862459 -0.37627634
-0.43620098 0.75247693 0.11855640
0.35028106 -0.02971824 0.57158047
0.15366615 -0.20943975 0.10629711
-0.13493969 -0.05258632 -0.12108492
0.90283203 0.81576806 -0.14814426
0.22851604 -0.13123325 0.97423452
-0.13766047 0.68605697 0.35265750
0.39055711 -0.14421673 -0.04990629
0.47362930 -0.86461884 0.65379298
-0.54808909 -0.57549483 -0.60283220
-0.70243120 -1.01053512 0.57226324
-0.14991921 -1.02909374 -0.32229704
0.10024934 0.83916980 -0.93488765
-0.21389583 0.06634320 0.41076177
0.39171878 0.25930756 -0.05303917
0.77884209 0.43522924 0.03395106
0.04224951 0.78298998 -0.05632090
0.17743492 0.19366169 0.61546201
0.27758008 0.02727216 0.04613676
0.11274268 -0.64372706 -0.85830158
-0.64743018 -0.09193145 -0.11503156
0.46548018 -0.35023022 -0.47145057
-0.01840325 0.81248575 -0.86225402
-0.86264479 0.04861121 -0.43239477
-0.82482350 -0.12854528 0.35308471
-0.05966288 -0.84133261 0.70763654
0.57784253 -0.15494442 -0.03589887
-1.19589961 0.80870533 -0.76733911
-0.51149976 0.86904258 -0.28675017
0.52006066 -0.05511430 -0.32307878
-0.56277913 0.42651120 1.00064504
0.12882234 0.86048430 -0.69547105
-0.26150948 0.03319912 -0.07576422
1.02858925 0.73538548 -0.71003771
0.75141549 0.93654329 0.78118807
-0.24965720 -0.61503643 -0.89635330
-0.28077233 0.93789142 0.10971175
-1.17740691 -0.92184132 0.95800608
0.45906571 -0.02413293 -0.03497485
-0.39959362 0.81113029 -0.84020406
-0.64222449 -0.69078064 0.01947961
-0.42757258 0.26217586 0.87199551
0.94356108 -0.36101654 0.44514093
-1.08719695 -0.70440286 -0.84778762
-0.69540840 0.47741744 0.80054724
0.19043781 -0.90557855 0.37651858
0.69614023 -0.89301407 0.12658893
0.75305468 -0.76128989 -0.71593589
-0.57933158 0.70049834 0.48625097
0.59181267 0.38744429 0.62041169
0.67589813 -0.32538670 0.96042889
1.05162942 0.63984084 -0.81631356
